digraph Tree {
node [shape=box, style="filled, rounded", color="black", fontname=helvetica] ;
edge [fontname=helvetica] ;
0 [label="persons <= 0.5\ngini = 0.4573\nsamples = 1728\nvalue = [384, 69, 1210, 65]\nclass = good", fillcolor="#399de59d"] ;
1 [label="doors <= 0.5\ngini = 0.2829\nsamples = 864\nvalue = [102, 18, 724, 20]\nclass = good", fillcolor="#399de5d0"] ;
0 -> 1 [labeldistance=2.5, labelangle=45, headlabel="True"] ;
2 [label="buying <= 2.5\ngini = 0.3935\nsamples = 288\nvalue = [51, 9, 218, 10]\nclass = good", fillcolor="#399de5b4"] ;
1 -> 2 ;
3 [label="buying <= 1.5\ngini = 0.418\nsamples = 180\nvalue = [37, 7, 132, 4]\nclass = good", fillcolor="#399de5a9"] ;
2 -> 3 ;
4 [label="gini = 0.3441\nsamples = 80\nvalue = [15, 2, 63, 0]\nclass = good", fillcolor="#399de5bc"] ;
3 -> 4 ;
5 [label="lug_boot <= 3.5\ngini = 0.4714\nsamples = 100\nvalue = [22, 5, 69, 4]\nclass = good", fillcolor="#399de59a"] ;
3 -> 5 ;
6 [label="gini = 0.4616\nsamples = 96\nvalue = [21, 4, 67, 4]\nclass = good", fillcolor="#399de59c"] ;
5 -> 6 ;
7 [label="gini = 0.625\nsamples = 4\nvalue = [1, 1, 2, 0]\nclass = good", fillcolor="#399de555"] ;
5 -> 7 ;
8 [label="maint <= 1.5\ngini = 0.3457\nsamples = 108\nvalue = [14, 2, 86, 6]\nclass = good", fillcolor="#399de5c3"] ;
2 -> 8 ;
9 [label="gini = 0.074\nsamples = 26\nvalue = [1, 0, 25, 0]\nclass = good", fillcolor="#399de5f5"] ;
8 -> 9 ;
10 [label="gini = 0.4155\nsamples = 82\nvalue = [13, 2, 61, 6]\nclass = good", fillcolor="#399de5b1"] ;
8 -> 10 ;
11 [label="buying <= 3.5\ngini = 0.2199\nsamples = 576\nvalue = [51, 9, 506, 10]\nclass = good", fillcolor="#399de5dd"] ;
1 -> 11 ;
12 [label="maint <= 3.5\ngini = 0.2378\nsamples = 360\nvalue = [37, 7, 312, 4]\nclass = good", fillcolor="#399de5d9"] ;
11 -> 12 ;
13 [label="lug_boot <= 3.5\ngini = 0.2705\nsamples = 220\nvalue = [26, 5, 186, 3]\nclass = good", fillcolor="#399de5d2"] ;
12 -> 13 ;
14 [label="safety <= 2.5\ngini = 0.3026\nsamples = 108\nvalue = [14, 4, 89, 1]\nclass = good", fillcolor="#399de5cb"] ;
13 -> 14 ;
15 [label="gini = 0.2594\nsamples = 60\nvalue = [8, 0, 51, 1]\nclass = good", fillcolor="#399de5d3"] ;
14 -> 15 ;
16 [label="gini = 0.3507\nsamples = 48\nvalue = [6, 4, 38, 0]\nclass = good", fillcolor="#399de5c2"] ;
14 -> 16 ;
17 [label="buying <= 2.5\ngini = 0.238\nsamples = 112\nvalue = [12, 1, 97, 2]\nclass = good", fillcolor="#399de5d9"] ;
13 -> 17 ;
18 [label="gini = 0.1913\nsamples = 56\nvalue = [6, 0, 50, 0]\nclass = good", fillcolor="#399de5e0"] ;
17 -> 18 ;
19 [label="gini = 0.2825\nsamples = 56\nvalue = [6, 1, 47, 2]\nclass = good", fillcolor="#399de5d1"] ;
17 -> 19 ;
20 [label="safety <= 4.5\ngini = 0.1836\nsamples = 140\nvalue = [11, 2, 126, 1]\nclass = good", fillcolor="#399de5e3"] ;
12 -> 20 ;
21 [label="buying <= 2.5\ngini = 0.1764\nsamples = 136\nvalue = [10, 2, 123, 1]\nclass = good", fillcolor="#399de5e5"] ;
20 -> 21 ;
22 [label="gini = 0.0377\nsamples = 52\nvalue = [1, 0, 51, 0]\nclass = good", fillcolor="#399de5fa"] ;
21 -> 22 ;
23 [label="gini = 0.2531\nsamples = 84\nvalue = [9, 2, 72, 1]\nclass = good", fillcolor="#399de5d6"] ;
21 -> 23 ;
24 [label="gini = 0.375\nsamples = 4\nvalue = [1, 0, 3, 0]\nclass = good", fillcolor="#399de5aa"] ;
20 -> 24 ;
25 [label="maint <= 2.5\ngini = 0.1883\nsamples = 216\nvalue = [14, 2, 194, 6]\nclass = good", fillcolor="#399de5e3"] ;
11 -> 25 ;
26 [label="gini = 0.0377\nsamples = 52\nvalue = [1, 0, 51, 0]\nclass = good", fillcolor="#399de5fa"] ;
25 -> 26 ;
27 [label="lug_boot <= 4.5\ngini = 0.2319\nsamples = 164\nvalue = [13, 2, 143, 6]\nclass = good", fillcolor="#399de5dc"] ;
25 -> 27 ;
28 [label="lug_boot <= 3.5\ngini = 0.2263\nsamples = 160\nvalue = [13, 1, 140, 6]\nclass = good", fillcolor="#399de5dc"] ;
27 -> 28 ;
29 [label="safety <= 2.5\ngini = 0.2091\nsamples = 140\nvalue = [10, 1, 124, 5]\nclass = good", fillcolor="#399de5e0"] ;
28 -> 29 ;
30 [label="gini = 0.0689\nsamples = 28\nvalue = [1, 0, 27, 0]\nclass = good", fillcolor="#399de5f6"] ;
29 -> 30 ;
31 [label="buying <= 4.5\ngini = 0.2414\nsamples = 112\nvalue = [9, 1, 97, 5]\nclass = good", fillcolor="#399de5da"] ;
29 -> 31 ;
32 [label="gini = 0.2478\nsamples = 80\nvalue = [6, 1, 69, 4]\nclass = good", fillcolor="#399de5d9"] ;
31 -> 32 ;
33 [label="gini = 0.2246\nsamples = 32\nvalue = [3, 0, 28, 1]\nclass = good", fillcolor="#399de5dc"] ;
31 -> 33 ;
34 [label="gini = 0.335\nsamples = 20\nvalue = [3, 0, 16, 1]\nclass = good", fillcolor="#399de5c3"] ;
28 -> 34 ;
35 [label="gini = 0.375\nsamples = 4\nvalue = [0, 1, 3, 0]\nclass = good", fillcolor="#399de5aa"] ;
27 -> 35 ;
36 [label="buying <= 3.5\ngini = 0.5709\nsamples = 864\nvalue = [282, 51, 486, 45]\nclass = good", fillcolor="#399de559"] ;
0 -> 36 [labeldistance=2.5, labelangle=-45, headlabel="False"] ;
37 [label="maint <= 3.5\ngini = 0.5977\nsamples = 612\nvalue = [223, 45, 313, 31]\nclass = good", fillcolor="#399de53b"] ;
36 -> 37 ;
38 [label="lug_boot <= 3.5\ngini = 0.628\nsamples = 430\nvalue = [170, 39, 194, 27]\nclass = good", fillcolor="#399de518"] ;
37 -> 38 ;
39 [label="persons <= 4.5\ngini = 0.6532\nsamples = 278\nvalue = [119, 26, 106, 27]\nclass = unacc", fillcolor="#e5813913"] ;
38 -> 39 ;
40 [label="persons <= 3.5\ngini = 0.6576\nsamples = 270\nvalue = [111, 26, 106, 27]\nclass = unacc", fillcolor="#e5813908"] ;
39 -> 40 ;
41 [label="buying <= 2.5\ngini = 0.5788\nsamples = 150\nvalue = [75, 11, 61, 3]\nclass = unacc", fillcolor="#e5813928"] ;
40 -> 41 ;
42 [label="lug_boot <= 1.5\ngini = 0.5803\nsamples = 114\nvalue = [60, 9, 42, 3]\nclass = unacc", fillcolor="#e5813940"] ;
41 -> 42 ;
43 [label="gini = 0.375\nsamples = 20\nvalue = [15, 0, 5, 0]\nclass = unacc", fillcolor="#e58139aa"] ;
42 -> 43 ;
44 [label="gini = 0.6057\nsamples = 94\nvalue = [45, 9, 37, 3]\nclass = unacc", fillcolor="#e5813924"] ;
42 -> 44 ;
45 [label="gini = 0.5448\nsamples = 36\nvalue = [15, 2, 19, 0]\nclass = good", fillcolor="#399de531"] ;
41 -> 45 ;
46 [label="buying <= 1.5\ngini = 0.7138\nsamples = 120\nvalue = [36, 15, 45, 24]\nclass = good", fillcolor="#399de51b"] ;
40 -> 46 ;
47 [label="gini = 0.455\nsamples = 20\nvalue = [7, 0, 13, 0]\nclass = good", fillcolor="#399de576"] ;
46 -> 47 ;
48 [label="safety <= 1.5\ngini = 0.7334\nsamples = 100\nvalue = [29, 15, 32, 24]\nclass = good", fillcolor="#399de50b"] ;
46 -> 48 ;
49 [label="gini = 0.3984\nsamples = 16\nvalue = [1, 3, 0, 12]\nclass = vgood", fillcolor="#d739e5b1"] ;
48 -> 49 ;
50 [label="gini = 0.7029\nsamples = 84\nvalue = [28, 12, 32, 12]\nclass = good", fillcolor="#399de512"] ;
48 -> 50 ;
51 [label="gini = 0.0\nsamples = 8\nvalue = [8, 0, 0, 0]\nclass = unacc", fillcolor="#e58139ff"] ;
39 -> 51 ;
52 [label="persons <= 3.5\ngini = 0.5449\nsamples = 152\nvalue = [51, 13, 88, 0]\nclass = good", fillcolor="#399de55d"] ;
38 -> 52 ;
53 [label="persons <= 2.0\ngini = 0.5311\nsamples = 128\nvalue = [48, 7, 73, 0]\nclass = good", fillcolor="#399de550"] ;
52 -> 53 ;
54 [label="gini = 0.5612\nsamples = 56\nvalue = [24, 4, 28, 0]\nclass = good", fillcolor="#399de520"] ;
53 -> 54 ;
55 [label="gini = 0.4965\nsamples = 72\nvalue = [24, 3, 45, 0]\nclass = good", fillcolor="#399de570"] ;
53 -> 55 ;
56 [label="gini = 0.5312\nsamples = 24\nvalue = [3, 6, 15, 0]\nclass = good", fillcolor="#399de580"] ;
52 -> 56 ;
57 [label="buying <= 2.5\ngini = 0.4861\nsamples = 182\nvalue = [53, 6, 119, 4]\nclass = good", fillcolor="#399de582"] ;
37 -> 57 ;
58 [label="persons <= 2.5\ngini = 0.3259\nsamples = 122\nvalue = [25, 0, 97, 0]\nclass = good", fillcolor="#399de5bd"] ;
57 -> 58 ;
59 [label="gini = 0.0\nsamples = 38\nvalue = [0, 0, 38, 0]\nclass = good", fillcolor="#399de5ff"] ;
58 -> 59 ;
60 [label="gini = 0.4181\nsamples = 84\nvalue = [25, 0, 59, 0]\nclass = good", fillcolor="#399de593"] ;
58 -> 60 ;
61 [label="gini = 0.6333\nsamples = 60\nvalue = [28, 6, 22, 4]\nclass = unacc", fillcolor="#e5813928"] ;
57 -> 61 ;
62 [label="maint <= 1.5\ngini = 0.4702\nsamples = 252\nvalue = [59, 6, 173, 14]\nclass = good", fillcolor="#399de597"] ;
36 -> 62 ;
63 [label="gini = 0.1271\nsamples = 44\nvalue = [3, 0, 41, 0]\nclass = good", fillcolor="#399de5ec"] ;
62 -> 63 ;
64 [label="buying <= 4.5\ngini = 0.5194\nsamples = 208\nvalue = [56, 6, 132, 14]\nclass = good", fillcolor="#399de57f"] ;
62 -> 64 ;
65 [label="maint <= 3.5\ngini = 0.4658\nsamples = 136\nvalue = [22, 6, 96, 12]\nclass = good", fillcolor="#399de5a6"] ;
64 -> 65 ;
66 [label="gini = 0.5741\nsamples = 74\nvalue = [18, 6, 44, 6]\nclass = good", fillcolor="#399de576"] ;
65 -> 66 ;
67 [label="gini = 0.283\nsamples = 62\nvalue = [4, 0, 52, 6]\nclass = good", fillcolor="#399de5d1"] ;
65 -> 67 ;
68 [label="gini = 0.5262\nsamples = 72\nvalue = [34, 0, 36, 2]\nclass = good", fillcolor="#399de50d"] ;
64 -> 68 ;
}